{
  "version": "v2",
  "created_at": "2026-04-14T18:49:59.722905",
  "feature_schema_id": "",
  "feature_schema_hash": "",
  "label_policy_id": "",
  "label_policy_hash": "",
  "dataset_manifest_id": "",
  "feature_columns": [
    "close_t1",
    "ret_1d",
    "ret_2d",
    "ret_3d",
    "ret_5d",
    "ret_10d",
    "ret_20d",
    "ret_60d",
    "log_ret_1d",
    "log_ret_5d",
    "overnight_gap",
    "intraday_ret",
    "hl_range_pct",
    "body_pct",
    "upper_shadow_pct",
    "lower_shadow_pct",
    "ma3",
    "ema3",
    "volatility_3",
    "volume_ratio_3",
    "turnover_ratio_3",
    "ma5",
    "ema5",
    "volatility_5",
    "volume_ratio_5",
    "turnover_ratio_5",
    "ma8",
    "ema8",
    "volatility_8",
    "volume_ratio_8",
    "turnover_ratio_8",
    "ma10",
    "ema10",
    "volatility_10",
    "volume_ratio_10",
    "turnover_ratio_10",
    "ma13",
    "ema13",
    "volatility_13",
    "volume_ratio_13",
    "turnover_ratio_13",
    "ma20",
    "ema20",
    "volatility_20",
    "volume_ratio_20",
    "turnover_ratio_20",
    "ma30",
    "ema30",
    "volatility_30",
    "volume_ratio_30",
    "turnover_ratio_30",
    "ma60",
    "ema60",
    "volatility_60",
    "volume_ratio_60",
    "turnover_ratio_60",
    "ma_gap_5_20",
    "ma_gap_10_30",
    "ma_gap_20_60",
    "ema_gap_12_26",
    "trend_slope_20",
    "trend_slope_60",
    "atr5",
    "atr14",
    "atr20",
    "atr_ratio",
    "downside_vol20",
    "upside_vol20",
    "distance_high20",
    "distance_low20",
    "drawdown_20",
    "macd_line",
    "macd_signal",
    "macd_hist",
    "rsi6",
    "rsi14",
    "rsi24",
    "stoch_k",
    "stoch_d",
    "stoch_j",
    "cci14",
    "williams_r14",
    "turnover_rate",
    "turnover_zscore20",
    "volume_zscore20",
    "price_volume_corr20",
    "mfi14",
    "obv_norm",
    "obv_slope5",
    "adl_norm",
    "adl_slope5",
    "pvt_norm",
    "vwap_gap5",
    "boll_mid20",
    "boll_width20",
    "boll_pos20",
    "close_rank20",
    "volume_rank20",
    "turnover_rank20",
    "amplitude_rank20",
    "bg_is_st",
    "bg_is_delisting_risk",
    "bg_roe",
    "bg_debt_ratio",
    "bg_roe_rank60",
    "bg_debt_ratio_rank60",
    "bg_financial_quality",
    "bg_holder_reduction20",
    "bg_block_trade_net10",
    "bg_margin_trend20",
    "bg_northbound_net5",
    "bg_dragon_tiger_freq20",
    "bg_board_code",
    "holder_count_chg_5",
    "holder_count_chg_20",
    "holder_count_chg_60",
    "holder_count_zscore_60",
    "holder_count_decrease_streak",
    "northbound_net_5",
    "northbound_net_10",
    "northbound_net_20",
    "northbound_net_60",
    "northbound_net_zscore_60",
    "northbound_momentum_5v20",
    "financing_balance_chg_5",
    "financing_balance_chg_20",
    "financing_balance_chg_60",
    "financing_balance_zscore_60",
    "financing_balance_trend_5v20",
    "block_trade_net_5",
    "block_trade_net_20",
    "block_trade_frequency_20",
    "block_trade_direction_10",
    "roe_trend_60",
    "debt_ratio_stability_60",
    "background_completion_score",
    "i1m_minute_count",
    "i1m_session_return",
    "i1m_session_range_pct",
    "i1m_realized_vol",
    "i1m_vwap_gap",
    "i1m_am_return",
    "i1m_pm_return",
    "i1m_am_pm_diff",
    "i1m_last30_return",
    "i1m_last30_volume_share",
    "i1m_positive_bar_ratio",
    "i1m_close_position",
    "i5m_minute_count",
    "i5m_session_return",
    "i5m_session_range_pct",
    "i5m_realized_vol",
    "i5m_vwap_gap",
    "i5m_am_return",
    "i5m_pm_return",
    "i5m_am_pm_diff",
    "i5m_last30_return",
    "i5m_last30_volume_share",
    "i5m_positive_bar_ratio",
    "i5m_close_position",
    "realized_skew20",
    "realized_kurt20",
    "weekday_sin",
    "weekday_cos",
    "month_sin",
    "month_cos",
    "__random_baseline__"
  ],
  "lgbm_model": {
    "backend": "fallback_logit",
    "payload": {
      "learning_rate": 0.05,
      "epochs": 300,
      "l2": 0.001,
      "seed": 2026,
      "weights": [
        -43.12638354379881,
        0.004622646387483789,
        -0.013906077371388176,
        0.02101059687824741,
        0.019247310933555015,
        0.023247151498640015,
        0.042547272255736956,
        0.09882198986026595,
        -8.973825515930831e-05,
        0.01229774926923245,
        0.005445270661103305,
        0.008943411849141197,
        -0.07146872905566584,
        0.35204802804857266,
        -1.3060461561519396,
        -1.22502390125803,
        -43.149594660978096,
        -43.14116276660966,
        -0.036762550342576875,
        -4.587917556167264,
        -4.578887358394315,
        -43.16892741630365,
        -43.17888190514035,
        -0.04356666222293677,
        -4.557326308429767,
        -4.5454459720993725,
        -43.23297913041604,
        -43.20568368411793,
        -0.058288311913277165,
        -4.558494789997005,
        -4.5731430572183775,
        -43.24148071566523,
        -43.23637474459262,
        -0.03664383410571622,
        -4.5652997247657865,
        -4.5530672454699,
        -43.300379874701356,
        -43.283795502561105,
        -0.04436953814790249,
        -4.552273167064336,
        -4.562997184985545,
        -43.38229405976116,
        -43.355536446558204,
        -0.03751319672815627,
        -4.567607878958294,
        -4.570783611020138,
        -43.442663735321275,
        -43.4365300114722,
        -0.02755002739991682,
        -4.553772606956261,
        -4.571928125515833,
        -43.65439953512487,
        -43.655438036076966,
        -0.04393182181919473,
        -4.645552602488032,
        -4.645334842554865,
        0.01795354684585892,
        0.025576104779553018,
        0.04573188189470915,
        0.12373899853896324,
        -0.0074263111189876475,
        -0.008283093160134076,
        -0.7292979087703358,
        -0.7481911494673871,
        -0.7467815933492448,
        -0.0641849048121061,
        -0.036873673558190136,
        -0.02715994736088655,
        0.20701282395311732,
        -0.15121253680170582,
        0.15750117953727413,
        0.12232859618170293,
        0.1328633008956237,
        0.012815642428218376,
        -210.79247474398522,
        -212.2527236615807,
        -213.6455511961577,
        -193.57971800249393,
        -193.47967853911692,
        -193.7369174282282,
        62.443026739944784,
        270.19110426524895,
        -0.0054815942465654445,
        0.14343907305646017,
        0.14785369690743191,
        -1.0815017335656472,
        -226.30754668972,
        -224.7877581266723,
        -0.3029521315047852,
        -0.03591473220563936,
        0.009630979548968027,
        -0.020740609443951494,
        -0.010534594615029197,
        -43.38873251428894,
        -0.35308077735267906,
        -1.987986870044289,
        -2.1118652686847565,
        -2.2634462744682207,
        -2.2755171064081647,
        -2.268756609376578,
        -0.01928087765716608,
        -0.0002792224638105372,
        -0.35734441844433584,
        -0.6128573177731133,
        -2.314240314503686,
        -2.1962659921849514,
        -2.9100469514889205,
        0.12627486164231724,
        16.388812465715915,
        0.12194378949562994,
        -0.007900144246501668,
        -0.02253983699496843,
        0.0011303830051063789,
        -0.07236733048508731,
        -0.12144705951242675,
        -0.22841118513557895,
        0.8198765355861563,
        -6.3860002268157094,
        0.009317850618487507,
        0.004538765997501436,
        0.011018553289331745,
        -0.004515379839440589,
        -0.006713630953220223,
        0.010235139760741889,
        0.03471886219938429,
        0.1243333920836841,
        0.2835312266938473,
        2.289668177904416,
        0.06887396614015615,
        9.69052986945249,
        34.600346240389825,
        -4.71566281859949,
        0.5007852758900851,
        -0.01443118200059785,
        0.1680209610286946,
        -4.562692292463858,
        0.008341884805153608,
        0.017643196092493766,
        -0.009767993834164875,
        -0.024233498069758233,
        0.01493804405929791,
        -0.013958464879037989,
        0.0008956983054824169,
        0.002138610543077742,
        -0.009347688347165308,
        0.015295167968140328,
        0.015262703261915707,
        0.005432340363292517,
        -0.0002905159021564044,
        0.0018858663908209268,
        -0.010795916625391267,
        -0.002355044736829732,
        -0.0010337085675164671,
        -0.00839544442108859,
        0.008365713917708842,
        -0.01405243326477511,
        -0.004466682796924923,
        -0.022193360013087103,
        0.004894216568148406,
        0.007315492446557665,
        0.22863894663230894,
        -7.279411010919997,
        -1.6502401303931342,
        0.40171943141778993,
        0.0977409518558701,
        -0.05952678554574271,
        -0.09343530771042123
      ],
      "bias": -4.619631781119643
    }
  },
  "xgb_model": {
    "backend": "fallback_logit",
    "payload": {
      "learning_rate": 0.06,
      "epochs": 280,
      "l2": 0.0005,
      "seed": 2027,
      "weights": [
        -48.40235408371316,
        0.0017182163704440854,
        -0.002564589629712392,
        -0.013118100620451097,
        0.02668464814686129,
        0.024696213977138396,
        0.049557903459273654,
        0.09878032905251352,
        -0.0029044369454874924,
        0.00605616554414703,
        -0.002601061394649382,
        0.005473293196637396,
        -0.08215400268011094,
        0.40340622368336804,
        -1.4836000059679906,
        -1.359726949642368,
        -48.444016381770375,
        -48.43926485869367,
        -0.048798644418792614,
        -5.144552620131395,
        -5.1436027418679915,
        -48.46331066762663,
        -48.44497952766814,
        -0.05743802118594565,
        -5.128555612294894,
        -5.147506715218019,
        -48.52582196125165,
        -48.515120222023874,
        -0.03948529030415269,
        -5.108761151513429,
        -5.111715245688819,
        -48.554892994439854,
        -48.54078895413137,
        -0.05804484601787599,
        -5.095836225452787,
        -5.1258527553349715,
        -48.61515233380547,
        -48.58600789721853,
        -0.03385568808249574,
        -5.117285795289314,
        -5.113421433714213,
        -48.681623453524764,
        -48.65784540620125,
        -0.07462106956230863,
        -5.121746983616872,
        -5.149905867653296,
        -48.803321179065044,
        -48.765623087249814,
        -0.07321981076080028,
        -5.15362976190737,
        -5.153198477956396,
        -49.02650266622626,
        -49.00939893378111,
        -0.0659987805414952,
        -5.221008973010146,
        -5.227073255437142,
        0.010751829183725043,
        0.017635343188528146,
        0.013628223840004675,
        0.14368953851048463,
        -0.002837712097067707,
        0.003290898539788933,
        -0.8061357071783368,
        -0.8395297073615725,
        -0.8168769652711649,
        -0.07605644566421967,
        -0.028794197496103496,
        -0.040465675233924414,
        0.24850447922698232,
        -0.17559504819189883,
        0.2045592983430104,
        0.13936955779967897,
        0.1098694162542353,
        0.010732613832136811,
        -236.72510165986844,
        -238.39154121694682,
        -239.9901347406353,
        -217.33142004670398,
        -217.221689968972,
        -217.5305852139706,
        70.70839806673399,
        303.77384557624424,
        0.0002963814944806549,
        0.16833734501317446,
        0.16318581080947134,
        -1.203996784728346,
        -254.17096705495894,
        -252.80342500872237,
        -0.3296184127383771,
        -0.032306792613071886,
        0.01571685305923902,
        -0.0050308786759922786,
        -0.0022366837360997833,
        -48.704068199645995,
        -0.40323547289132705,
        -2.255723315391094,
        -2.362552361709111,
        -2.555749877451705,
        -2.5595850065175165,
        -2.5260061647783782,
        -0.007003530224306513,
        0.006884087784669824,
        -0.40247634832211937,
        -0.6733456408407231,
        -2.5979623043288993,
        -2.4682241841749777,
        -3.2703154749095478,
        0.13395859806907223,
        47.514012625745096,
        0.1267820704787897,
        0.013442492459925657,
        -0.005285819627665697,
        0.010412184123586249,
        -0.07124310689088403,
        -0.11337380202444969,
        -0.27225177566305137,
        0.9409398751277556,
        -7.180905210087968,
        -0.011244890380487227,
        -0.019009967657413612,
        -0.006584657285264416,
        0.00027881958925693917,
        0.010159413255958333,
        -0.011291279320144886,
        0.024715737614407835,
        0.1237930098826056,
        0.3407430288029198,
        2.556732913056122,
        0.08263765673317734,
        23.377407280718785,
        59.84853836027645,
        -5.283132213843731,
        0.546706084590129,
        0.0149693833175541,
        0.20402302673969683,
        -5.135927203074958,
        0.009917630106171176,
        -0.0036978618132584465,
        0.00020479431932459723,
        0.011149688856617048,
        0.006726569369666274,
        -0.020352548381456125,
        -0.014107724866917205,
        0.00023439735938540445,
        0.00577500776207121,
        -0.008655108907763992,
        -0.0035803779938322518,
        -0.029109754691399363,
        0.009718362078041007,
        -0.001366681650783648,
        -0.004663329921249263,
        0.008634168788193099,
        0.004521066590666433,
        -0.028711861808236556,
        0.007374047142646828,
        -0.004064481080776742,
        -0.01947047681641838,
        -0.0019823180527313335,
        0.0021171283488428156,
        0.003950333067843734,
        0.26285704957342904,
        -8.202752765137722,
        -1.861151822474575,
        0.46928676301665956,
        0.08963254590655374,
        -0.04102420194346159,
        -0.11066983542926266
      ],
      "bias": -5.172404827218904
    }
  },
  "lgbm_calibrator": {
    "x_right": [
      0.0,
      0.0,
      0.0,
      0.0,
      0.0,
      0.0,
      0.0,
      0.0,
      0.0,
      0.0,
      0.0,
      0.0,
      0.0,
      0.0,
      0.0,
      0.0,
      0.0,
      0.0,
      0.0,
      0.0,
      0.0,
      0.0,
      0.0,
      0.0,
      0.0,
      0.0,
      0.0,
      0.0,
      0.0,
      0.0,
      0.0,
      0.0,
      0.0,
      1.0
    ],
    "y_hat": [
      0.0,
      0.0,
      0.0,
      0.0,
      0.0,
      0.0,
      0.0,
      0.0,
      0.0,
      0.0,
      0.0,
      0.0,
      0.0,
      0.0,
      0.0,
      0.0,
      0.0,
      0.0,
      0.0,
      0.0,
      0.0,
      0.0,
      0.0,
      0.0,
      0.0,
      0.0,
      0.0,
      0.0,
      0.0,
      0.0,
      0.0,
      0.0,
      0.0,
      0.13551401869158877
    ]
  },
  "xgb_calibrator": {
    "x_right": [
      0.0,
      0.0,
      0.0,
      0.0,
      0.0,
      0.0,
      0.0,
      0.0,
      0.0,
      0.0,
      0.0,
      0.0,
      0.0,
      0.0,
      0.0,
      0.0,
      0.0,
      0.0,
      0.0,
      0.0,
      0.0,
      0.0,
      0.0,
      0.0,
      0.0,
      0.0,
      0.0,
      0.0,
      0.0,
      0.0,
      0.0,
      0.0,
      0.0,
      1.0
    ],
    "y_hat": [
      0.0,
      0.0,
      0.0,
      0.0,
      0.0,
      0.0,
      0.0,
      0.0,
      0.0,
      0.0,
      0.0,
      0.0,
      0.0,
      0.0,
      0.0,
      0.0,
      0.0,
      0.0,
      0.0,
      0.0,
      0.0,
      0.0,
      0.0,
      0.0,
      0.0,
      0.0,
      0.0,
      0.0,
      0.0,
      0.0,
      0.0,
      0.0,
      0.0,
      0.13551401869158877
    ]
  },
  "training_metrics": {
    "accuracy": 0.8583,
    "auc": 0.307682,
    "brier": 0.12166,
    "precision_at_k": 0.04,
    "recall_at_k": 0.028571,
    "positive_rate": 0.0,
    "mean_prob_spread": -0.0,
    "validation_samples": 247.0,
    "meta_mean_prob": 0.135514,
    "lgbm_mean_prob": 0.135514,
    "xgb_mean_prob": 0.135514,
    "time_gate_total_rows": 2466.0,
    "time_gate_kept_rows": 2466.0,
    "time_gate_dropped_rows": 0.0,
    "calibration_samples": 247.0,
    "test_samples": 247.0,
    "embargo_days": 6.0,
    "train_sample_weight_mean": 1.0,
    "train_sample_weight_max": 1.0,
    "train_sample_weight_min": 1.0
  },
  "metadata": {
    "artifact_created_at": "2026-04-14T18:49:59.722167",
    "lgbm_backend": "fallback_logit",
    "xgb_backend": "fallback_logit",
    "degraded_model_mode": true,
    "calibration_method": "isotonic",
    "train_samples": 1960,
    "calibration_samples": 247,
    "test_samples": 247,
    "embargo_days": 6,
    "dataset_split_strategy": "temporal",
    "label_conflict_policy": "conservative_zero",
    "meta_blend_weights": {
      "lgbm": 0.5,
      "xgb": 0.5
    },
    "dependency_status": {
      "lightgbm": {
        "installed": false,
        "version": ""
      },
      "xgboost": {
        "installed": false,
        "version": ""
      }
    },
    "sample_weighting": {}
  }
}